-0.5132622122764587
-0.26961955428123474
-0.5232622117890673
-0.25961955436462597
-0.5340097168729157
-0.24930429677046664
-0.5453267614777229
-0.23868120754653044
-0.5572889027250877
-0.2277229886349772
-0.5704259708842295
-0.21636588170616788
-0.5839635412605627
-0.2047259854905405
-0.5972558308704091
-0.19286328435774333
-0.6098826474861063
-0.18081492402678456
-0.6215975769700351
-0.16861816784552672
-0.6323127138360022
-0.1563185041828842
-0.6420778027160976
-0.143970622923552
-0.6510318844745705
-0.131636041494011
-0.6593468780270911
-0.11937981155148318
-0.6671861215394154
-0.10726799409029343
-0.6746834054056647
-0.09536691681209943
-0.6819356735114293
-0.08374539734596105
-0.6889993379616084
-0.07248352887728432
-0.6958755880970705
-0.06170291002912017
-0.7024289492614713
-0.05170413977366223
-0.7090420142165965
-0.04206817265209486
-0.7162207063421842
-0.03205860847084159
-0.724076429666629
-0.021391014767335112
-0.7326612567208778
-0.009829587485581492
-0.742071610468586
0.003022846723795469
-0.7525760506768713
0.018239134084542932
-0.7645114509290419
0.038809537039420916
-0.7775143865002759
0.06571724962674108
-0.7914781144214964
0.09963402744049138
-0.8066107972261994
0.1433650256486662
-0.823735357599379
0.2101844674103161
-0.8467251735657839
0.2820702391860273
-0.8878899099250099
0.3020503830013822
-0.9094994694427735
0.31028342748686755
-0.9176200533337969
0.31368064237517207
-0.9194611546815366
0.31385423850660377
-0.9187783540467364
0.31201779460937534
-0.9162333349136622
0.3083245432957858
-0.9115061403290128
0.3020860007550812
-0.9037165369111095
0.291044215042178
-0.902740294569473
0.2856800877739399
-0.9041076742871031
0.2835806857108586
-0.9072534423218381
0.28362736187662707
-0.9124523937139137
0.2854402934545226
-0.9220028602462977
0.28904532841050784
-0.9230606999270184
0.28780671607435065
-0.9214102433625136
0.2850677254567643
-0.9184177217317487
0.2815975162265028
-0.9142876992033017
0.2772191193116302
-0.9088956631779639
0.27165507395627897
-0.9019617301664655
0.2645417477265532
-0.8926361137314649
0.2549239103738598
-0.8772684052930225
0.23898287576280117
-0.8682652372534507
0.2281333725259929
-0.8656025371817662
0.22410532855370477
-0.8656784535529405
0.22313018899788445
-0.8676965370255935
0.22422363865501108
-0.8716342044834576
0.22718756262017603
-0.8789979895754587
0.2326435920357626
-0.8802818060492938
0.2319204072393083
-0.8790573780797575
0.22936220809074268
-0.8760269909245259
0.2251481532601768
-0.8706926597854274
0.2185507217004342
-0.8631643951514332
0.20671134651116296
-0.8634930359962864
0.20467227194045925
-0.8657909265667071
0.20546497932682006
-0.8697029215178899
0.2081042044947109
-0.8756155679441967
0.2126527342901183
-0.8860882196184255
0.22093976536405463
-0.888387010364113
0.22185303972550335
-0.8876992333721578
0.22030587731614243
-0.8851471419083179
0.21701652344637615
-0.8805518564636472
0.2115268549655575
-0.8722470214368357
0.20183876487423869
-0.8715686982420836
0.20054315069730733
-0.8731160915386565
0.20163039348292125
-0.8765093932878756
0.20456615622244811
-0.882921166643643
0.21024659284858802
-0.8834528189216289
0.21027025411462436
-0.8817086595018928
0.2081921042668751
-0.8781679126549571
0.204347602358441
-0.8716914640766957
0.19749497949915856
-0.869635710677878
0.19427610433503392
-0.870783246995458
0.19483859693609504
-0.8737190535348649
0.19728602764638387
-0.8788927661345037
0.20188083026666617
-0.8847053328167795
0.2060766194207717
-0.8844724835979586
0.20524055595791757
-0.8822976697343154
0.20256481043193075
-0.8779418833832924
0.1975368811716052
-0.8754152737151616
0.19421014569463416
-0.8764849389094563
0.194854787798894
-0.879368156283844
0.1973696965324975
-0.884843780779187
0.20230607110128443
-0.8857852072065718
0.20279817311916587
-0.8842801546012724
0.2009990235101137
-0.8808900603834713
0.19730575016050073
-0.8754654867530289
0.19110146090857458
-0.8764454848137057
0.19174291431381443
-0.8792371727599604
0.19425619682068385
-0.8843335882014302
0.1990145276256771
-0.8879051600547073
0.20153073819475162
-0.8872992647351441
0.20043805493809247
-0.8848205672847529
0.1975243470190431
-0.8798613231363842
0.19190083184509762
-0.8797898934121637
0.1911899415842095
-0.8818045898658103
0.1927580758279362
-0.8857685270891003
0.19623536190191904
-0.8913847957178634
0.20079542865939773
-0.8905295750007594
0.1995926408608505
-0.887833000822855
0.19659640577258403
-0.8826487559788903
0.1909995619296237
-0.8812155362614682
0.18883236448905338
-0.8825513791556782
0.18973225656084244
-0.8857012612106745
0.19247884017790237
-0.8917471309426264
0.19787637602400923
-0.8917480922861054
0.19735953386237418
-0.8897347303861922
0.19494355277417783
-0.8856214602815382
0.1903408118807618
-0.882934926939425
0.18646653828916163
-0.8841490313352844
0.18718986271555926
-0.8871565289999208
0.18977275731532678
-0.8928061205734028
0.19482410305528552
-0.8938779227451545
0.19521379386046395
-0.8924873186592903
0.19337518317044727
-0.889205887372237
0.1896161366228563
-0.8844962684697959
0.18375759720554571
-0.8855832430921631
0.18441994266209283
-0.8884713166082191
0.1869505156970852
-0.8938171234140765
0.191829594037907
-0.8959756845273464
0.19313407125443294
-0.894979865880061
0.19167077160162563
-0.8921393029594262
0.18838832301214023
-0.8866306159684572
0.18210666522723234
-0.8871308432597661
0.18204569290263412
-0.8895342646238331
0.18401501375562856
-0.8940557150389795
0.18802664350543113
-0.8983551014270571
0.19108462938726944
-0.8975976422909754
0.1898634045400061
-0.8949844957615185
0.18684407920969176
-0.8898466515976252
0.18111634813074834
-0.8893188651399745
0.17986656110832142
-0.8910591241322081
0.1811238794342528
-0.8946838697355715
0.18424981762288808
-0.9007770812707996
0.18916658107831893
-0.8999784959533061
0.18796740708075846
-0.8973318632099951
0.18497947244803356
-0.8922572378469432
0.1794513412581496
-0.8904355694362164
0.17671535732647847
-0.8916627934112812
0.17744460758299432
-0.8946959169500175
0.1800333423892959
-0.9004548841356361
0.18514338723010654
-0.9010927732495919
0.18512894878053904
-0.8994829340378119
0.18305906718012357
-0.8959260186073819
0.17898516394381236
-0.8920436860970768
0.1738052624565185
-0.893197591676531
0.1744981105054628
-0.8961472979848935
0.1770545720298942
-0.901647851050971
0.18202142490839152
-0.9032038306644907
0.1828233015089662
-0.902008035421709
0.1811732702360729
-0.8989572555602815
0.17766967897071603
-0.8934531156141324
0.171223900071888
-0.8943077089046552
0.17161554076984306
-0.8969941124953985
0.1739258438044375
-0.9019480656770128
0.17841579619842377
-0.9054593999560976
0.18087572447441735
-0.904685689856358
0.179647004521185
-0.9020581077199661
0.1766198828360046
-0.8969039548195397
0.17089102209616724
-0.8962987714784278
0.16954453041203738
-0.8980015967964822
0.1707606423007094
-0.9015755816728297
0.17383876572175314
-0.9078260995879407
0.1789707818960553
-0.9070755714196387
0.1778187774015055
-0.9044703425596647
0.17487348889694376
-0.8994743831616572
0.1694271427479199
-0.8974457597469161
0.1664992940662616
-0.8986139101270899
0.16718882824145145
-0.9015900328258262
0.16974235727386794
-0.9072308114422815
0.17477764628218415
-0.90804669185281
0.17494112500099243
-0.9065281689036426
0.17297752159585178
-0.9030908195744843
0.16905278620886305
-0.8987866377418049
0.16351416808802435
-0.8999181873348069
0.16421201393248577
-0.902846169202728
0.16677259268408842
-0.9082736803215589
0.1717114612493224
-0.9102082209139873
0.17286114915601183
-0.9091410939400123
0.17134970630014812
-0.9062288736971182
0.1680107208355303
-0.9006494950207343
0.16165446092908206
-0.9012464206014904
0.16175753149302516
-0.9037242537136865
0.16384618266756526
-0.908366449989567
0.16802171752414224
-0.9122942480150449
0.17086008075487635
-0.9115083216825425
0.16964273379831493
-0.9088701480351139
0.16662643134553617
-0.9036952347640803
0.16090413374116722
-0.9031410403423034
0.159658220880003
-0.9048677060139971
0.16092514276935396
