0.7376294732093811
1.9459291696548462
-0.6995416283607483
-1.3022973537445068
0.7276294739988038
1.9359291697578396
-0.7095416161383601
-1.2922973539913032
0.715817509330158
1.9258187264548212
-0.716679312131328
-1.282123575869888
0.7000481372023468
1.9156298744518994
-0.7238061846654629
-1.2717306371650603
0.6815670649001903
1.9053687640281187
-0.7309301579652101
-1.2610921566849915
0.6788595102737339
1.895030882092404
-0.7379796442006461
-1.2501882054484135
0.680471312512123
1.8846699208745403
-0.7448998837894225
-1.2389901131143255
0.6840549063478542
1.87430049535775
-0.7517757439974659
-1.2274712789912874
0.6888242831466491
1.8639193276579853
-0.7586996578023942
-1.215607366806183
0.6944326261035879
1.8535182245201591
-0.7657466779989065
-1.2033743714751097
0.700711431001225
1.8430896641175931
-0.772977807688191
-1.1907473843577416
0.7075822722117869
1.8326293307277155
-0.7804464282113155
-1.177699811393697
0.7150220829876393
1.8221373168894925
-0.7882045840680726
-1.1642026307188387
0.7230531547925731
1.811618630154274
-0.7963109644717764
-1.1502235785521149
0.731752914513947
1.8010834645845097
-0.8048440417536125
-1.13572636881469
0.7412947319594003
1.7905477947368296
-0.8139278351306376
-1.120670254426027
0.7520730937577518
1.780035170739555
-0.823793336818997
-1.105010884298558
0.7651808443444096
1.769581883274441
-0.8349698941404771
-1.088706008758744
0.785367470211492
1.7592540889867512
-0.8492038663660353
-1.0717421126890192
0.7967646874446727
1.7492339663748886
-0.8742783579529554
-1.0542910903915936
0.7989175560555213
1.7394245048364834
-0.882265463272627
-1.036202646655989
0.7984528473090701
1.7294778764929424
-0.8856061945882711
-1.0165995861150248
0.7960859138627158
1.7192623945009387
-0.886514919254657
-0.9941822966221137
0.7917785646665619
1.7087070454175382
-0.885709564292126
-0.9661952215253113
0.7842747595468863
1.6977451384355915
-0.8835389948507191
-0.9244432361860812
0.7778890748412827
1.686273317945941
-0.8846071685232729
-0.8553192835208286
0.7781654901091855
1.6742367873863286
-0.8871684447229786
-0.82947121073954
0.7804489720475704
1.6618112955897921
-0.8907604382220604
-0.8210183957340813
0.7839976509714887
1.6490064421347403
-0.8951520894383798
-0.8188010519148671
0.7884453247198787
1.6357093796258853
-0.900154334361092
-0.8196063533930349
0.7935168343828874
1.621633658000423
-0.9055789816806482
-0.8222148454448982
0.7988574657002772
1.6058847718534108
-0.9111218839313626
-0.8261138274545587
0.8043582652303028
1.586545432224109
-0.9167192469661776
-0.8315348450172991
0.8103411584770125
1.5594301150642877
-0.9226927401929085
-0.8401835601030225
0.8171375333871593
1.5121441670408122
-0.9293424645469467
-0.8556328939636815
0.8249488674074491
1.48563763489613
-0.9367288632572265
-0.8593519165936533
0.8342430088052691
1.47213224993903
-0.9453591329017174
-0.8594865962386369
0.8459845239461717
1.4628670024478805
-0.9561675790090876
-0.8576371547137782
0.8635820832616667
1.4542704466665215
-0.9721941128692929
-0.8538002604493528
0.8842034250654823
1.4388636696708195
-0.991709536350479
-0.8478154347856909
0.888356063791238
1.432103205655141
-0.9953148065446284
-0.8480603585416012
0.8891271530261731
1.4253999392768544
-0.995675712022117
-0.8502896336456458
0.8877404866009514
1.417586291251747
-0.9939535142536932
-0.8541991346176007
0.8845761370329399
1.4071450799700194
-0.9905044766242058
-0.8602831893538423
0.8796220583556748
1.3884136797161346
-0.9852990833539986
-0.8713839796549034
0.8720227548001656
1.3842818323301813
-0.9774204228307287
-0.8729795381159818
0.8591011485635669
1.3843776296534749
-0.963836121900332
-0.871615469607596
0.8515770191782278
1.3865548921344824
-0.9572861117866719
-0.8687361647471986
0.8498212323871253
1.3901791467185716
-0.9560070041324029
-0.8646115733137385
0.8505293403310753
1.3951949277512896
-0.9570598913865922
-0.8591577239208533
0.8530987496769533
1.4017719962717408
-0.9599463902748461
-0.852107936186353
0.8577741416122896
1.4106056801604483
-0.9649915625938509
-0.8426186154110246
0.8661897147339076
1.4248969174570925
-0.9741721006118158
-0.8270946180666926
0.8662821881536369
1.433507616802483
-0.9747607077606998
-0.8170278215355529
0.8642435652426378
1.4358057355905176
-0.9730357545495958
-0.813661462938209
0.8605931757128743
1.435450335703705
-0.9696396243739822
-0.8131819303515769
0.8551647624441965
1.433188833625187
-0.9644639696439679
-0.8147088287223988
0.8466436452243787
1.4290033498184067
-0.9562906134125793
-0.8181215821894475
0.8359253787178089
1.4214092425993572
-0.9460199160337786
-0.8245421736389161
0.8354076459175316
1.4179476647043738
-0.9456771053735432
-0.8265426775677164
0.8370957096512464
1.417716376173481
-0.9474932378622736
-0.825794725721164
0.8405188542342213
1.41944517470426
-0.9510269372541917
-0.8231890808264062
0.8459272910741619
1.423223655145544
-0.9565624426696873
-0.8182869132712699
0.8553664740228011
1.4259654155147832
-0.9662418124784284
-0.8134308538960938
0.8593959959182345
1.4243839050791371
-0.9702931415325612
-0.8144317189268252
0.8595224154167201
1.4212725944940532
-0.9704333282519403
-0.8171682756060287
0.8576228662463189
1.4166471730899284
-0.968542323246593
-0.8214655813859192
0.8538471784854412
1.409897248906508
-0.9647826215810541
-0.8278109389758652
0.8468598071159359
1.397891627892767
-0.9578324650912651
-0.8390563008569976
0.8455149549399111
1.3950851936069977
-0.9566170215854216
-0.8414555007036173
0.8467666516748645
1.3954390958234422
-0.9579585225183525
-0.8408340583808618
0.8498162173637256
1.3977117890398787
-0.9610865990937033
-0.8383380067027938
0.8552229206262457
1.4019366200790562
-0.9665918874076231
-0.8338355252806305
0.8608883233585601
1.4098098270636776
-0.9725046626823228
-0.8255209133587611
0.8601914686660252
1.41072156083996
-0.97189959766378
-0.8244137171403272
0.8576378623165734
1.4093428401093262
-0.969415564076791
-0.8256415536204281
0.8532210116548183
1.406104081951706
-0.9650753727422865
-0.8287235113017869
0.8452578322705927
1.3998947946005391
-0.9572543774932776
-0.8346655255735064
0.8433813433385604
1.3996999480804218
-0.9554413897962472
-0.8348049082938687
0.8443070616506407
1.401650314507343
-0.9564075848732705
-0.8328144520305936
0.8470710458931474
1.4053836309597927
-0.9592089351306079
-0.8290342194837449
0.8522071287897909
1.412098705139231
-0.9644193467128728
-0.822201305369507
0.8555651066907312
1.4143336645365818
-0.9676561025854669
-0.8198512945144275
0.8548613917892288
1.4132574851214286
-0.9669181073667739
-0.8208394252962498
0.8522961941032688
1.41037879155507
-0.9643244069918453
-0.8236431554213939
0.8474447951331525
1.405226861653692
-0.9594577156245646
-0.8286702512695007
0.8444168537633808
1.3997906945011374
-0.9561872294264634
-0.8341217835531036
0.8454619210876981
1.4001322276052626
-0.9571686605953615
-0.833728590354753
0.8483177015527953
1.4024012080148223
-0.9599704916785866
-0.8314191835557725
0.8536137312945037
1.4068147098586554
-0.9652103184526937
-0.8269210658227651
0.8561912910291319
1.4103178781837484
-0.9676287214501903
-0.82364744568973
0.8551830184556779
1.409613400052961
-0.9665602065122699
-0.8243971682109724
0.8523519777469223
1.4070466661939274
-0.9636775390912966
-0.8270033709231849
0.8469805776434883
1.401963664718749
-0.9582510089415748
-0.83211744308645
0.8456356688412128
1.4017290406046479
-0.9567900657223652
-0.8325170612545544
0.8469210863519099
1.4036685513927136
-0.9580055162541399
-0.8306778392158737
0.8500657964460622
1.407493467109162
-0.9610821937998589
-0.8269421711200866
0.8555681447625322
1.4141599354305994
-0.9663491024532346
-0.8206501253643775
0.854666705835333
1.413520791685633
-0.9653819023618528
-0.821356809909905
0.8519359800747518
1.4110094755485791
-0.9625968662209676
-0.8239238547786438
0.8468029148365237
1.406222203099534
-0.9574114732623861
-0.8287513065926618
0.8445425295176837
1.4033212833588393
-0.9549619536489736
-0.8318414744110791
0.8456437165235168
1.4042013943914162
-0.9559894173948098
-0.8310129970566019
0.8485651382838929
1.4069223316416088
-0.9588455780454548
-0.8283363887883864
0.8541805841084419
1.4122100027735214
-0.9643748317242705
-0.8230867985567416
0.8547258062796137
1.4127112753711568
-0.9648203065238631
-0.8226861574548853
0.8530305570714254
1.410992016892235
-0.9630577680582602
-0.8244717255868383
0.849414859625418
1.4073221848419284
-0.9593744317598963
-0.8281997964112422
0.8442103967537216
1.4030828740056722
-0.9539284277983305
-0.8329367934510676
0.8451411109296247
1.4042552026762292
-0.9548047956034552
-0.8318482392049557
0.8479009135557309
1.4072206498439923
-0.9575186866686347
-0.8289512848700565
0.8531438698677126
1.4127102085369023
-0.9627121467842409
-0.8235104460563937
0.8547212012809624
1.4147700258216256
-0.9641964667489561
-0.8216120703087173
0.8534609319701371
1.4137538964005445
-0.9628909745028484
-0.8226899201413107
0.8503731139473842
1.4108968441246912
-0.9597623972679973
-0.8256025087965684
0.8444152730629483
1.4053229136087975
-0.9537357433622496
-0.8312717375324165
0.8446606870255063
1.405641594535633
-0.9539289509699609
-0.8310238350787261
0.8468667084786381
1.4079046570843918
-0.9560942080329256
-0.8288166159312118
0.8511808221073512
1.4122890819773901
-0.960368581659566
-0.8244737377632579
0.8548114935223374
1.415815085394839
-0.9638192541528731
-0.8212343391453089
0.8538797950895607
1.4148602245291542
-0.9628396864604342
-0.8222417352217501
0.8511163279797219
1.41207430814585
-0.9600353821200486
-0.8250718390188138
0.8457943662250776
1.406681789752101
-0.9546671832498805
-0.8304951686307244
0.8449631469774802
1.4060715398438957
-0.9537682839569214
-0.831220820098272
0.8465080796260191
1.407756732186026
-0.9552710483375084
-0.8296070732241188
0.8499483621160702
1.4113343699287135
-0.9586699169335074
-0.8260921256792534
0.8550922518954187
1.4171376060561185
-0.9636334864548826
-0.820668666347193
0.8540911966625111
1.4163303962074802
-0.9625982939514047
-0.8215339253478656
0.851272767172406
1.4136767081234198
-0.9597516050597688
-0.824235972128977
0.845970993553579
1.408589244505893
-0.9544257250573523
-0.8293541848890047
0.8441376517551672
1.4069744034865772
-0.952517940806738
-0.8311093141692143
0.8452879300042261
1.408238434969154
-0.9536353687022527
-0.8299034540843797
0.8482707796843764
1.4113270406234069
-0.9565885621139196
-0.8268647788303708
0.8540541783882113
1.4172872881507403
-0.962318142584588
-0.8209987979898625
0.8537807672702531
1.4170579619395587
-0.962007946921701
-0.821272047900013
0.8515527983145362
1.4148648362604201
-0.9597513040991776
-0.8234994829125523
0.8472111889067903
1.410555304898784
-0.9553844276577319
-0.8278263011061262
0.8436104770858449
1.4071157750572127
-0.9516424316428527
-0.8315496192399066
0.8445638780845081
1.4081218752811675
-0.9525632199323203
-0.8305983741484457
0.8473477104168119
1.410949706070371
-0.9553190911154001
-0.827816038898338
0.8527178635062361
1.4163513825834035
-0.9606587953486303
-0.8224445533722899
0.8534448806449019
1.4173001498668514
-0.9613356464460695
-0.8215846147975716
0.851833287378676
1.4158274097099321
-0.9596930198174072
-0.8231058250750851
0.8483314026063324
1.4124662264340693
-0.9561624421977201
-0.8265095496909765
0.8426926909626689
1.4073183213789004
-0.9503834327606907
-0.8319924703700401
0.8435985342036962
1.408354940649093
-0.9512619938426934
-0.8310094608332288
0.8463349768429596
1.411201468243199
-0.953975830612529
-0.8282059387997438
0.851490233511201
1.4164912990446783
-0.9591138368705061
-0.8229328298278269
0.8536591223637533
1.4188228746798348
-0.9612144821191889
-0.8207129118533235
0.8525832291749906
1.4178215211103717
-0.9601135981678761
-0.8217342860100246
0.8496825220952581
1.4149872300146356
-0.9571913395157806
-0.8245849626542818
0.844081888821809
1.4094799186984144
-0.9515685329564089
-0.8300912830256602
0.8437010446445097
1.4091705645781334
-0.9511475240071134
-0.8304572235788411
0.8454894761656883
1.4110108345631742
-0.9529082597091819
-0.8286563199543152
0.8492349890028568
1.414805240115931
-0.9566278814610132
-0.8248890811698746
0.853815124554961
1.4196778557954086
-0.9610451079474804
-0.8203571130217868
0.8528240676641403
1.4187605069523146
-0.9600235613813168
-0.8213100599571608
0.8500116889181004
1.4160103874228975
-0.9571857619331035
-0.8240893620557785
0.8446682488449384
1.4107278346543486
-0.9518200584638652
-0.8293771415272821
0.8433378069586766
1.409622886212841
-0.9504343169186446
-0.8305763337614674
0.8446601862936746
1.4110728228785494
-0.9517279909163655
-0.8291727099802396
0.8478319101151149
1.4143675914845832
-0.9548732456149902
-0.8259159338459159
0.8536935359084739
1.4205132996688932
-0.9606458217692482
-0.8199375427701756
0.8529606559426157
1.419890608423584
-0.9598869369224552
-0.8205844076981238
0.8503725989873241
1.4173926705757667
-0.9572778075817016
-0.8231021169889544
0.8455031158648172
1.412626789617162
-0.9523937760198127
-0.8278613427264235
0.8424470894446183
1.409768626564227
-0.9492427024230217
-0.8308840501175175
0.8433676435832989
1.4107641623681912
-0.9501387358091726
-0.8299168776447946
0.8461230321625852
1.4135841083239207
-0.952873128793645
-0.8271196049693985
0.8514334554330374
1.4189716846903293
-0.9581644128199789
-0.8217295631847508
0.8523007254942935
1.419952855975107
-0.9589822383296926
-0.8207999337644546
0.8507603125582679
1.4184833015890503
-0.9574124115940166
-0.8222916338245296
0.8473429019075824
1.4151348988086025
-0.9539680734960193
-0.8256550800895041
0.8416079161799321
1.4096658463015843
-0.9481052144791975
-0.8313640608267427
0.8424960556140206
1.4106286354223327
-0.948966924791772
-0.8304335978526383
0.8452167010610786
1.4134111505178564
-0.9516657293241104
-0.8276762842485655
0.8503350957615374
1.4185891586012198
-0.956767976811235
-0.8224908894761215
0.8526661860196311
1.421141242443855
-0.9590280256426724
-0.8200331265897954
0.8516240186102447
1.4201906294008095
-0.9579616912299856
-0.8209864491241332
0.8487568312483345
1.4174044254875637
-0.9550738157894992
-0.823773813815578
0.8432377043885001
1.4119930126862072
-0.9495359168447621
-0.829158268577611
0.8426415354989739
1.411522284348209
-0.9488959100020992
-0.8296727553872004
0.8443067701476329
1.4132723359121713
-0.950532474018734
-0.8279504685536285
0.8478935363510098
1.4169454730857092
-0.9540923137199016
-0.8242928652460909
0.8528598523289119
1.4222071314852238
-0.9588940480793023
-0.8193333324389048
0.8518767173319035
1.4212961364756067
-0.9578807389098588
-0.8202632806409106
0.8490727330930848
1.4185529412381093
-0.9550517562097489
-0.8230212965440432
0.8437751391327167
1.413318796126848
-0.9497336931116441
-0.8282388077285274
0.8421179868547721
1.4118384323656548
-0.9480139049155407
-0.8297928738321929
0.8433247334473626
1.4131378349370687
-0.949191960757456
-0.8285187145600421
0.8463674814662542
1.4162665715940994
-0.9522087109559302
-0.82540837096218
0.8522223953019864
1.4222830284831771
-0.9580055825983734
-0.8194509363689622
0.8517693148133436
1.4219243472353331
-0.9575225841183495
-0.8198178755592829
0.8494051940816002
1.419635069000755
-0.9551346727621133
-0.8221140942301491
0.844870802204102
1.4151813395301827
-0.9505814237011808
-0.8265497372279539
0.8414402495598083
1.411995751369058
-0.9470296300485087
-0.8299206407202953
0.8423693643865183
1.413005435814069
-0.947929851991603
-0.8289339729611668
0.845131785751315
1.4158370872686208
-0.9506675516452122
-0.826120057772925
0.850461048431463
1.421249358506831
-0.9559718806347954
-0.8206984165723104
0.851249657598415
1.4221675464109298
-0.9567093147544683
-0.8198142207102602
0.8496711083416452
1.420670321938784
-0.9550995213723823
-0.8213231904789384
